svm_type c_svc
kernel_type rbf
gamma 0.0078125000000000104
nr_class 2
total_sv 243
rho 316.65854347420157
label 1 -1
nr_sv 120 123
SV
10809.408805051566 1:0.93338848 2:0.1564369 3:-1.1011693 4:-0.21789002 5:-1.7564243 6:0.23029417 
10809.408805051566 1:0.93338848 2:-0.90775969 3:-0.66777458 4:-0.65384444 5:-1.3235942 6:-0.21566665 
10809.408805051566 1:-0.1311513 2:0.1564369 3:-0.23437986 4:0.2180644 5:-0.025104142 6:0.67625499 
10809.408805051566 1:-0.1311513 2:1.2206335 3:0.63240957 4:0.65401882 5:-0.025104142 6:0.23029417 
10809.408805051566 1:0.93338848 2:1.2206335 3:1.0658043 4:1.0899732 5:0.40772589 6:1.5681766 
10809.408805051566 1:-0.1311513 2:-0.90775969 3:0.19901485 4:-0.65384444 5:-0.45793417 6:-0.21566665 
10809.408805051566 1:0.93338848 2:1.2206335 3:1.0658043 4:1.5259277 5:0.40772589 6:1.1222158 
10809.408805051566 1:0.93338848 2:2.2848301 3:1.0658043 4:-0.65384444 5:1.273386 6:-0.21566665 
8821.8011709580314 1:-2.2602309 2:-0.90775969 3:1.0658043 4:-1.0897989 5:1.273386 6:-0.66162747 
5931.2908058175744 1:0.93338848 2:-0.90775969 3:-1.1011693 4:1.0899732 5:-1.7564243 6:0.67625499 
10809.408805051566 1:-2.2602309 2:-0.90775969 3:0.19901485 4:-1.5257533 5:-0.45793417 6:-1.1075883 
1786.8847227507536 1:0.93338848 2:0.1564369 3:1.0658043 4:-1.5257533 5:0.40772589 6:-1.1075883 
10809.408805051566 1:0.93338848 2:-0.90775969 3:0.63240957 4:-1.0897989 5:0.84055592 6:-1.5535491 
10809.408805051566 1:-0.1311513 2:-0.90775969 3:0.63240957 4:-1.0897989 5:-0.025104142 6:-1.5535491 
10809.408805051566 1:-2.2602309 2:-0.90775969 3:-0.66777458 4:-1.0897989 5:-0.45793417 6:-1.5535491 
8269.4669758732525 1:0.93338848 2:0.1564369 3:1.0658043 4:1.0899732 5:1.273386 6:1.5681766 
10809.408805051566 1:-1.1956911 2:-0.90775969 3:-1.1011693 4:-0.21789002 5:-1.7564243 6:0.23029417 
5809.216562975721 1:0.93338848 2:-0.90775969 3:1.0658043 4:1.0899732 5:1.273386 6:0.67625499 
10809.408805051566 1:0.93338848 2:0.1564369 3:-1.534564 4:-1.5257533 5:-1.3235942 6:-1.1075883 
8943.5064813366043 1:-1.1956911 2:-0.90775969 3:1.0658043 4:1.0899732 5:1.273386 6:0.67625499 
10809.408805051566 1:-0.1311513 2:-0.90775969 3:-1.1011693 4:-0.65384444 5:-0.89076421 6:-0.21566665 
6620.3941036443939 1:0.93338848 2:0.1564369 3:1.499199 4:-0.65384444 5:0.84055592 6:-1.1075883 
10809.408805051566 1:0.93338848 2:-0.90775969 3:-0.23437986 4:0.2180644 5:-0.89076421 6:-0.21566665 
10809.408805051566 1:0.93338848 2:1.2206335 3:-1.1011693 4:0.65401882 5:-1.7564243 6:1.1222158 
10809.408805051566 1:-0.1311513 2:0.1564369 3:-1.1011693 4:-0.21789002 5:-1.7564243 6:-0.66162747 
3133.2555664515235 1:-1.1956911 2:0.1564369 3:1.499199 4:0.2180644 5:0.84055592 6:-0.21566665 
10809.408805051566 1:-0.1311513 2:1.2206335 3:0.19901485 4:0.2180644 5:0.40772589 6:0.67625499 
4090.7505686815966 1:0.93338848 2:0.1564369 3:-0.66777458 4:1.0899732 5:-0.45793417 6:1.5681766 
10809.408805051566 1:-0.1311513 2:-0.90775969 3:-0.23437986 4:1.0899732 5:-0.025104142 6:0.67625499 
7114.6784875054418 1:-1.1956911 2:0.1564369 3:1.499199 4:-0.65384444 5:0.84055592 6:-0.21566665 
5545.0083045302017 1:0.93338848 2:1.2206335 3:-1.1011693 4:1.5259277 5:-1.7564243 6:1.1222158 
10809.408805051566 1:-0.1311513 2:1.2206335 3:0.63240957 4:0.2180644 5:0.84055592 6:0.67625499 
10809.408805051566 1:0.93338848 2:0.1564369 3:0.19901485 4:0.65401882 5:0.40772589 6:0.23029417 
10809.408805051566 1:-0.1311513 2:-0.90775969 3:-1.1011693 4:-0.21789002 5:-1.7564243 6:0.23029417 
10809.408805051566 1:-0.1311513 2:-0.90775969 3:-1.1011693 4:1.0899732 5:-0.89076421 6:0.67625499 
10809.408805051566 1:-1.1956911 2:-0.90775969 3:1.0658043 4:-1.0897989 5:1.273386 6:-1.5535491 
10809.408805051566 1:0.93338848 2:1.2206335 3:-0.23437986 4:1.5259277 5:-0.025104142 6:1.1222158 
10809.408805051566 1:0.93338848 2:-0.90775969 3:-0.23437986 4:1.5259277 5:-0.89076421 6:1.1222158 
10362.177424762102 1:-0.1311513 2:1.2206335 3:-1.1011693 4:-1.5257533 5:-1.7564243 6:-1.5535491 
10809.408805051566 1:-0.1311513 2:0.1564369 3:-0.23437986 4:-0.21789002 5:-0.025104142 6:-0.66162747 
10809.408805051566 1:0.93338848 2:-0.90775969 3:1.0658043 4:-1.5257533 5:0.40772589 6:-1.1075883 
1548.474624417621 1:-1.1956911 2:0.1564369 3:0.19901485 4:0.2180644 5:-0.45793417 6:-0.21566665 
10809.408805051566 1:-1.1956911 2:-0.90775969 3:1.499199 4:-1.0897989 5:0.84055592 6:-0.66162747 
10809.408805051566 1:0.93338848 2:1.2206335 3:-0.23437986 4:0.65401882 5:-0.89076421 6:1.1222158 
4055.2884108317921 1:-0.1311513 2:-0.90775969 3:-1.534564 4:-0.65384444 5:-1.7564243 6:-1.1075883 
10809.408805051566 1:0.93338848 2:0.1564369 3:0.63240957 4:0.65401882 5:-0.025104142 6:0.23029417 
10809.408805051566 1:0.93338848 2:-0.90775969 3:-0.23437986 4:-0.21789002 5:-0.025104142 6:0.23029417 
10809.408805051566 1:0.93338848 2:2.2848301 3:-0.23437986 4:-1.0897989 5:-0.025104142 6:-1.5535491 
10809.408805051566 1:-1.1956911 2:0.1564369 3:0.19901485 4:-1.0897989 5:0.40772589 6:-0.66162747 
10809.408805051566 1:-2.2602309 2:-0.90775969 3:-1.1011693 4:-0.65384444 5:-0.89076421 6:-1.1075883 
10809.408805051566 1:0.93338848 2:-0.90775969 3:0.19901485 4:-0.65384444 5:0.40772589 6:-0.21566665 
10809.408805051566 1:-1.1956911 2:-0.90775969 3:-0.66777458 4:1.5259277 5:-0.45793417 6:1.1222158 
10809.408805051566 1:-1.1956911 2:-0.90775969 3:-1.1011693 4:1.5259277 5:-1.7564243 6:1.1222158 
10809.408805051566 1:0.93338848 2:1.2206335 3:1.0658043 4:-0.65384444 5:0.40772589 6:-0.21566665 
10809.408805051566 1:-0.1311513 2:0.1564369 3:-1.1011693 4:-0.21789002 5:-0.89076421 6:0.23029417 
10809.408805051566 1:0.93338848 2:0.1564369 3:0.19901485 4:0.65401882 5:-0.45793417 6:0.23029417 
10809.408805051566 1:-0.1311513 2:1.2206335 3:0.63240957 4:-1.5257533 5:0.84055592 6:-1.1075883 
52.195055769545235 1:-1.1956911 2:0.1564369 3:0.19901485 4:0.2180644 5:0.40772589 6:-0.21566665 
10809.408805051566 1:-0.1311513 2:1.2206335 3:0.63240957 4:-1.0897989 5:0.84055592 6:-1.5535491 
6201.6188065658525 1:-1.1956911 2:-0.90775969 3:-1.534564 4:1.0899732 5:-1.3235942 6:1.5681766 
10809.408805051566 1:0.93338848 2:0.1564369 3:-0.23437986 4:1.0899732 5:-0.025104142 6:0.67625499 
10809.408805051566 1:0.93338848 2:0.1564369 3:-1.1011693 4:-1.5257533 5:-1.7564243 6:-1.1075883 
10809.408805051566 1:0.93338848 2:0.1564369 3:-1.1011693 4:-0.65384444 5:-0.89076421 6:-0.21566665 
6410.1923575697001 1:-0.1311513 2:1.2206335 3:1.499199 4:0.2180644 5:0.84055592 6:-0.21566665 
10809.408805051566 1:0.93338848 2:-0.90775969 3:1.0658043 4:1.5259277 5:1.273386 6:1.1222158 
10809.408805051566 1:-0.1311513 2:-0.90775969 3:-1.1011693 4:0.2180644 5:-1.7564243 6:-0.21566665 
10809.408805051566 1:-1.1956911 2:0.1564369 3:-0.23437986 4:-0.65384444 5:-0.025104142 6:-1.1075883 
10809.408805051566 1:-0.1311513 2:0.1564369 3:-0.23437986 4:1.0899732 5:-0.025104142 6:0.67625499 
10809.408805051566 1:0.93338848 2:1.2206335 3:-1.1011693 4:-1.5257533 5:-1.7564243 6:-1.1075883 
10809.408805051566 1:-0.1311513 2:-0.90775969 3:-0.23437986 4:0.2180644 5:-0.89076421 6:-0.21566665 
10809.408805051566 1:0.93338848 2:2.2848301 3:-0.66777458 4:-1.5257533 5:-0.45793417 6:-1.1075883 
10809.408805051566 1:0.93338848 2:-0.90775969 3:0.63240957 4:-0.65384444 5:-0.025104142 6:-0.21566665 
10809.408805051566 1:0.93338848 2:1.2206335 3:1.499199 4:-0.65384444 5:0.84055592 6:-1.1075883 
10809.408805051566 1:0.93338848 2:1.2206335 3:0.19901485 4:0.65401882 5:0.40772589 6:0.23029417 
10809.408805051566 1:0.93338848 2:-0.90775969 3:-0.66777458 4:1.0899732 5:-1.3235942 6:1.5681766 
10809.408805051566 1:0.93338848 2:2.2848301 3:-0.66777458 4:-1.0897989 5:-0.45793417 6:-1.5535491 
10809.408805051566 1:-0.1311513 2:-0.90775969 3:0.19901485 4:-1.0897989 5:0.40772589 6:-0.66162747 
10809.408805051566 1:-0.1311513 2:-0.90775969 3:0.19901485 4:1.5259277 5:-0.45793417 6:1.1222158 
10809.408805051566 1:-0.1311513 2:1.2206335 3:0.63240957 4:-0.65384444 5:0.84055592 6:-0.21566665 
10809.408805051566 1:-1.1956911 2:0.1564369 3:-0.23437986 4:-0.21789002 5:-0.025104142 6:0.23029417 
10809.408805051566 1:-1.1956911 2:0.1564369 3:1.499199 4:0.65401882 5:0.84055592 6:0.23029417 
10809.408805051566 1:-0.1311513 2:-0.90775969 3:0.63240957 4:0.2180644 5:-0.025104142 6:-0.21566665 
9030.017989745711 1:-0.1311513 2:-0.90775969 3:1.499199 4:0.2180644 5:0.84055592 6:-0.21566665 
8654.7581533720077 1:0.93338848 2:1.2206335 3:-1.534564 4:-0.65384444 5:-1.3235942 6:-1.1075883 
766.73578744037741 1:-0.1311513 2:-0.90775969 3:0.19901485 4:0.65401882 5:0.40772589 6:0.23029417 
10809.408805051566 1:0.93338848 2:-0.90775969 3:1.499199 4:0.65401882 5:0.84055592 6:1.1222158 
3173.3298082769866 1:0.93338848 2:2.2848301 3:0.63240957 4:1.0899732 5:0.84055592 6:0.67625499 
460.80416316893428 1:0.93338848 2:0.1564369 3:1.499199 4:-0.65384444 5:0.84055592 6:-0.21566665 
7618.306691011946 1:0.93338848 2:1.2206335 3:-0.66777458 4:0.65401882 5:-1.3235942 6:0.23029417 
3027.9519257584489 1:-2.2602309 2:-0.90775969 3:1.499199 4:0.2180644 5:0.84055592 6:0.67625499 
10809.408805051566 1:-0.1311513 2:0.1564369 3:1.0658043 4:0.2180644 5:0.40772589 6:-0.21566665 
10809.408805051566 1:0.93338848 2:2.2848301 3:0.19901485 4:0.65401882 5:0.40772589 6:0.23029417 
6013.5664667369883 1:0.93338848 2:0.1564369 3:1.0658043 4:-0.21789002 5:1.273386 6:0.23029417 
8774.3855139106199 1:0.93338848 2:1.2206335 3:-0.23437986 4:1.0899732 5:-0.89076421 6:1.5681766 
10809.408805051566 1:0.93338848 2:-0.90775969 3:1.0658043 4:-1.0897989 5:1.273386 6:-1.5535491 
10809.408805051566 1:-2.2602309 2:-0.90775969 3:1.0658043 4:-1.0897989 5:1.273386 6:-1.5535491 
10809.408805051566 1:-0.1311513 2:1.2206335 3:1.0658043 4:-1.0897989 5:0.40772589 6:-0.66162747 
10809.408805051566 1:0.93338848 2:2.2848301 3:1.0658043 4:0.2180644 5:1.273386 6:0.67625499 
10809.408805051566 1:-2.2602309 2:-0.90775969 3:1.499199 4:1.0899732 5:0.84055592 6:0.67625499 
10809.408805051566 1:0.93338848 2:2.2848301 3:0.63240957 4:-0.21789002 5:0.84055592 6:-0.66162747 
10809.408805051566 1:-0.1311513 2:0.1564369 3:1.0658043 4:0.2180644 5:1.273386 6:-0.21566665 
572.13024102297948 1:-1.1956911 2:-0.90775969 3:1.0658043 4:-1.0897989 5:1.273386 6:-0.66162747 
7029.5659400004897 1:0.93338848 2:-0.90775969 3:-1.1011693 4:0.65401882 5:-0.89076421 6:1.1222158 
10809.408805051566 1:0.93338848 2:0.1564369 3:-0.23437986 4:-0.21789002 5:-0.025104142 6:0.23029417 
10809.408805051566 1:0.93338848 2:0.1564369 3:0.19901485 4:0.2180644 5:0.40772589 6:0.67625499 
10358.263498527751 1:0.93338848 2:2.2848301 3:1.0658043 4:0.2180644 5:1.273386 6:-0.21566665 
10696.830914512328 1:-0.1311513 2:-0.90775969 3:1.499199 4:0.65401882 5:0.84055592 6:1.1222158 
10809.408805051566 1:-0.1311513 2:-0.90775969 3:1.499199 4:0.2180644 5:0.84055592 6:0.67625499 
10809.408805051566 1:0.93338848 2:2.2848301 3:1.0658043 4:-0.21789002 5:0.40772589 6:-0.66162747 
10809.408805051566 1:-0.1311513 2:-0.90775969 3:0.19901485 4:-0.65384444 5:0.40772589 6:-0.21566665 
4697.6630737018049 1:-1.1956911 2:-0.90775969 3:-0.66777458 4:0.2180644 5:-1.3235942 6:-0.21566665 
1537.8683260805069 1:-2.2602309 2:-0.90775969 3:0.63240957 4:-1.5257533 5:-0.025104142 6:-1.1075883 
10809.408805051566 1:-0.1311513 2:0.1564369 3:0.19901485 4:-0.21789002 5:0.40772589 6:0.23029417 
10809.408805051566 1:-0.1311513 2:0.1564369 3:0.63240957 4:0.2180644 5:-0.025104142 6:-0.21566665 
1943.7923888727582 1:-0.1311513 2:1.2206335 3:1.499199 4:1.0899732 5:0.84055592 6:0.67625499 
10809.408805051566 1:-1.1956911 2:-0.90775969 3:0.63240957 4:-1.0897989 5:-0.025104142 6:-0.66162747 
10809.408805051566 1:-1.1956911 2:0.1564369 3:0.19901485 4:-1.0897989 5:-0.45793417 6:-0.66162747 
4572.2830191917137 1:0.93338848 2:1.2206335 3:1.0658043 4:-0.65384444 5:1.273386 6:-1.1075883 
10809.408805051566 1:-1.1956911 2:-0.90775969 3:-0.66777458 4:-0.65384444 5:-0.45793417 6:-0.21566665 
10809.408805051566 1:-1.1956911 2:-0.90775969 3:0.63240957 4:-0.65384444 5:-0.025104142 6:-1.1075883 
-10809.408805051566 1:-0.1311513 2:0.1564369 3:1.499199 4:0.65401882 5:1.273386 6:1.5681766 
-10809.408805051566 1:-0.1311513 2:-0.90775969 3:1.499199 4:-0.65384444 5:0.40772589 6:-0.66162747 
-10809.408805051566 1:0.93338848 2:0.1564369 3:-1.1011693 4:1.5259277 5:-1.3235942 6:0.67625499 
-10809.408805051566 1:-0.1311513 2:-0.90775969 3:-0.66777458 4:0.65401882 5:-1.7564243 6:0.67625499 
-4321.2070209816475 1:-0.1311513 2:-0.90775969 3:0.63240957 4:-0.21789002 5:0.40772589 6:0.67625499 
-10809.408805051566 1:0.93338848 2:-0.90775969 3:1.0658043 4:0.2180644 5:0.84055592 6:1.1222158 
-10809.408805051566 1:0.93338848 2:-0.90775969 3:-0.66777458 4:0.65401882 5:-1.7564243 6:0.67625499 
-10809.408805051566 1:-0.1311513 2:-0.90775969 3:1.0658043 4:0.2180644 5:0.84055592 6:-0.66162747 
-10809.408805051566 1:-1.1956911 2:-0.90775969 3:1.499199 4:0.65401882 5:0.40772589 6:0.67625499 
-10658.024126733673 1:-0.1311513 2:-0.90775969 3:-0.23437986 4:0.65401882 5:0.40772589 6:0.67625499 
-3298.039225327997 1:0.93338848 2:-0.90775969 3:0.19901485 4:-0.65384444 5:0.84055592 6:-0.66162747 
-10809.408805051566 1:0.93338848 2:-0.90775969 3:1.499199 4:0.65401882 5:1.273386 6:-0.21566665 
-10809.408805051566 1:-0.1311513 2:-0.90775969 3:0.19901485 4:1.0899732 5:-0.89076421 6:1.1222158 
-7666.1980780781732 1:0.93338848 2:1.2206335 3:1.499199 4:0.2180644 5:1.273386 6:-0.66162747 
-1761.4673547176205 1:0.93338848 2:1.2206335 3:-1.534564 4:0.65401882 5:-0.89076421 6:0.67625499 
-2708.4204100072925 1:-0.1311513 2:0.1564369 3:0.63240957 4:-1.5257533 5:0.40772589 6:-0.66162747 
-1497.224952730516 1:-2.2602309 2:-0.90775969 3:-0.66777458 4:-0.65384444 5:-0.89076421 6:-1.5535491 
-10809.408805051566 1:0.93338848 2:1.2206335 3:0.19901485 4:-0.21789002 5:-0.45793417 6:0.23029417 
-10809.408805051566 1:-0.1311513 2:-0.90775969 3:1.0658043 4:-0.21789002 5:0.84055592 6:-1.1075883 
-2983.8200061211719 1:-0.1311513 2:1.2206335 3:0.63240957 4:-1.5257533 5:0.40772589 6:-0.66162747 
-10809.408805051566 1:0.93338848 2:0.1564369 3:-0.66777458 4:-0.65384444 5:-1.3235942 6:-0.21566665 
-10809.408805051566 1:0.93338848 2:0.1564369 3:-0.66777458 4:1.5259277 5:-0.89076421 6:0.67625499 
-10809.408805051566 1:-1.1956911 2:-0.90775969 3:-0.23437986 4:0.2180644 5:-0.45793417 6:-0.66162747 
-10809.408805051566 1:-0.1311513 2:1.2206335 3:-0.23437986 4:-0.21789002 5:-0.025104142 6:0.23029417 
-10809.408805051566 1:-0.1311513 2:1.2206335 3:-0.23437986 4:-0.65384444 5:-0.025104142 6:-1.1075883 
-10809.408805051566 1:-1.1956911 2:-0.90775969 3:-0.66777458 4:-1.0897989 5:-0.89076421 6:-0.66162747 
-10809.408805051566 1:-0.1311513 2:1.2206335 3:1.499199 4:-0.65384444 5:1.273386 6:0.23029417 
-1295.2220006012667 1:-0.1311513 2:1.2206335 3:1.499199 4:-0.21789002 5:1.273386 6:0.67625499 
-7379.9246601611012 1:-0.1311513 2:-0.90775969 3:-1.534564 4:0.65401882 5:-1.7564243 6:1.5681766 
-10809.408805051566 1:-2.2602309 2:-0.90775969 3:-0.23437986 4:-1.5257533 5:0.40772589 6:-1.5535491 
-9077.3868705280493 1:0.93338848 2:1.2206335 3:-1.534564 4:-0.21789002 5:-1.7564243 6:0.67625499 
-10809.408805051566 1:0.93338848 2:0.1564369 3:-0.23437986 4:0.65401882 5:-1.3235942 6:0.67625499 
-10809.408805051566 1:-1.1956911 2:0.1564369 3:0.19901485 4:-0.21789002 5:0.84055592 6:-0.21566665 
-9685.587389053997 1:0.93338848 2:1.2206335 3:1.499199 4:1.0899732 5:0.40772589 6:1.1222158 
-9341.2117755880845 1:-0.1311513 2:1.2206335 3:1.0658043 4:1.0899732 5:0.84055592 6:0.23029417 
-2326.065860399568 1:-0.1311513 2:0.1564369 3:1.499199 4:-1.5257533 5:0.40772589 6:-1.5535491 
-10809.408805051566 1:-0.1311513 2:0.1564369 3:-1.1011693 4:-1.0897989 5:-1.7564243 6:-1.1075883 
-5536.1152587398819 1:-0.1311513 2:0.1564369 3:0.63240957 4:0.2180644 5:1.273386 6:0.23029417 
-7304.2873001500557 1:0.93338848 2:2.2848301 3:1.499199 4:-1.0897989 5:0.40772589 6:-1.1075883 
-9751.1917408222762 1:-0.1311513 2:-0.90775969 3:1.499199 4:-0.21789002 5:0.40772589 6:-0.21566665 
-3517.7800180720615 1:-1.1956911 2:-0.90775969 3:-1.534564 4:-0.21789002 5:-1.7564243 6:0.67625499 
-3031.5662974326124 1:0.93338848 2:0.1564369 3:-1.1011693 4:-0.65384444 5:-1.3235942 6:0.23029417 
-10809.408805051566 1:0.93338848 2:-0.90775969 3:0.63240957 4:0.2180644 5:1.273386 6:0.23029417 
-10809.408805051566 1:-0.1311513 2:0.1564369 3:-1.1011693 4:-0.65384444 5:-1.7564243 6:-0.66162747 
-10809.408805051566 1:-0.1311513 2:1.2206335 3:-0.66777458 4:-1.0897989 5:-1.3235942 6:-1.5535491 
-10809.408805051566 1:-2.2602309 2:-0.90775969 3:1.0658043 4:-1.5257533 5:0.84055592 6:-0.66162747 
-10809.408805051566 1:0.93338848 2:-0.90775969 3:0.19901485 4:-1.0897989 5:-0.025104142 6:-0.66162747 
-2913.3302411845661 1:0.93338848 2:-0.90775969 3:1.499199 4:-1.5257533 5:1.273386 6:-0.66162747 
-10809.408805051566 1:0.93338848 2:0.1564369 3:-0.23437986 4:1.0899732 5:0.40772589 6:1.1222158 
-10809.408805051566 1:0.93338848 2:-0.90775969 3:-0.23437986 4:0.2180644 5:-0.45793417 6:1.1222158 
-10809.408805051566 1:-0.1311513 2:0.1564369 3:0.63240957 4:0.65401882 5:1.273386 6:0.67625499 
-10809.408805051566 1:0.93338848 2:1.2206335 3:1.0658043 4:0.65401882 5:-0.025104142 6:0.67625499 
-3831.4343811279027 1:-0.1311513 2:1.2206335 3:1.0658043 4:-0.21789002 5:0.84055592 6:0.67625499 
-1779.166320858275 1:0.93338848 2:1.2206335 3:1.0658043 4:-0.21789002 5:0.84055592 6:0.67625499 
-10809.408805051566 1:-0.1311513 2:0.1564369 3:-1.1011693 4:-0.65384444 5:-1.7564243 6:-0.21566665 
-10809.408805051566 1:0.93338848 2:1.2206335 3:0.19901485 4:1.5259277 5:0.84055592 6:1.5681766 
-10809.408805051566 1:0.93338848 2:-0.90775969 3:0.19901485 4:-1.0897989 5:-0.45793417 6:-0.66162747 
-10809.408805051566 1:-1.1956911 2:-0.90775969 3:-0.23437986 4:1.5259277 5:-0.45793417 6:0.67625499 
-10809.408805051566 1:0.93338848 2:0.1564369 3:-0.66777458 4:1.0899732 5:-0.89076421 6:0.23029417 
-10809.408805051566 1:0.93338848 2:2.2848301 3:0.19901485 4:-0.65384444 5:0.40772589 6:-0.66162747 
-10809.408805051566 1:0.93338848 2:2.2848301 3:1.0658043 4:-0.21789002 5:0.84055592 6:-1.1075883 
-10809.408805051566 1:-1.1956911 2:0.1564369 3:-0.66777458 4:-0.65384444 5:-0.45793417 6:-0.21566665 
-4001.865654171665 1:0.93338848 2:-0.90775969 3:1.0658043 4:1.5259277 5:-0.025104142 6:1.5681766 
-10809.408805051566 1:0.93338848 2:2.2848301 3:0.19901485 4:0.2180644 5:0.40772589 6:0.67625499 
-10809.408805051566 1:-0.1311513 2:1.2206335 3:-0.23437986 4:-0.65384444 5:-0.025104142 6:-0.21566665 
-10809.408805051566 1:-0.1311513 2:-0.90775969 3:-1.1011693 4:-1.0897989 5:-1.3235942 6:-0.66162747 
-5005.7381122064153 1:-0.1311513 2:-0.90775969 3:-1.534564 4:1.0899732 5:-0.89076421 6:1.1222158 
-10809.408805051566 1:0.93338848 2:2.2848301 3:0.19901485 4:-0.21789002 5:0.40772589 6:-0.21566665 
-7630.374250061167 1:0.93338848 2:0.1564369 3:-1.1011693 4:-0.21789002 5:-0.45793417 6:-0.21566665 
-10809.408805051566 1:0.93338848 2:1.2206335 3:0.19901485 4:-1.0897989 5:-0.45793417 6:-1.5535491 
-10809.408805051566 1:-2.2602309 2:-0.90775969 3:0.19901485 4:-0.65384444 5:-0.89076421 6:-0.66162747 
-10809.408805051566 1:0.93338848 2:-0.90775969 3:0.63240957 4:1.5259277 5:0.40772589 6:0.67625499 
-3118.060497942578 1:-0.1311513 2:1.2206335 3:1.499199 4:-0.65384444 5:1.273386 6:-1.5535491 
-7924.2543398331236 1:-2.2602309 2:-0.90775969 3:1.499199 4:-0.65384444 5:1.273386 6:-1.5535491 
-10809.408805051566 1:-0.1311513 2:0.1564369 3:1.499199 4:0.65401882 5:0.40772589 6:0.67625499 
-10809.408805051566 1:0.93338848 2:2.2848301 3:0.63240957 4:0.65401882 5:1.273386 6:0.67625499 
-6869.5782660593804 1:0.93338848 2:2.2848301 3:1.499199 4:-0.65384444 5:1.273386 6:0.23029417 
-7098.8632141903727 1:-1.1956911 2:-0.90775969 3:-1.534564 4:0.65401882 5:-1.7564243 6:-0.21566665 
-7720.7165808454183 1:-0.1311513 2:1.2206335 3:0.63240957 4:-1.5257533 5:1.273386 6:-1.5535491 
-10809.408805051566 1:-0.1311513 2:-0.90775969 3:-0.23437986 4:1.0899732 5:0.40772589 6:1.1222158 
-10809.408805051566 1:0.93338848 2:0.1564369 3:-0.66777458 4:-0.65384444 5:-1.3235942 6:-0.66162747 
-10809.408805051566 1:0.93338848 2:-0.90775969 3:0.63240957 4:-0.65384444 5:1.273386 6:-0.66162747 
-10809.408805051566 1:0.93338848 2:2.2848301 3:0.19901485 4:-0.65384444 5:0.40772589 6:-1.1075883 
-10809.408805051566 1:-1.1956911 2:-0.90775969 3:1.0658043 4:-0.21789002 5:0.84055592 6:-1.1075883 
-3296.2946256756891 1:0.93338848 2:-0.90775969 3:-0.66777458 4:1.5259277 5:-0.89076421 6:0.67625499 
-10809.408805051566 1:0.93338848 2:1.2206335 3:1.0658043 4:1.0899732 5:0.84055592 6:0.23029417 
-10670.044425692649 1:0.93338848 2:-0.90775969 3:0.63240957 4:-0.65384444 5:0.40772589 6:0.23029417 
-10809.408805051566 1:-0.1311513 2:-0.90775969 3:1.499199 4:0.2180644 5:0.40772589 6:0.23029417 
-8778.2556622716347 1:-1.1956911 2:0.1564369 3:1.0658043 4:1.0899732 5:0.84055592 6:0.23029417 
-10809.408805051566 1:0.93338848 2:-0.90775969 3:-1.534564 4:0.65401882 5:-0.89076421 6:0.67625499 
-10809.408805051566 1:0.93338848 2:1.2206335 3:-0.66777458 4:-0.21789002 5:-1.3235942 6:-0.66162747 
-10809.408805051566 1:-1.1956911 2:-0.90775969 3:1.499199 4:-1.0897989 5:0.40772589 6:-1.1075883 
-10809.408805051566 1:-0.1311513 2:0.1564369 3:0.19901485 4:1.5259277 5:-0.89076421 6:1.5681766 
-10809.408805051566 1:-1.1956911 2:0.1564369 3:0.63240957 4:-1.5257533 5:0.40772589 6:-0.66162747 
-603.12702852830682 1:-0.1311513 2:-0.90775969 3:0.19901485 4:1.5259277 5:-0.89076421 6:1.5681766 
-10809.408805051566 1:-1.1956911 2:-0.90775969 3:-0.23437986 4:0.65401882 5:-0.45793417 6:-0.21566665 
-8733.1909594108056 1:-1.1956911 2:-0.90775969 3:-0.23437986 4:-0.65384444 5:-0.45793417 6:0.23029417 
-10809.408805051566 1:-0.1311513 2:-0.90775969 3:-0.23437986 4:-1.0897989 5:-0.025104142 6:-1.5535491 
-10809.408805051566 1:-1.1956911 2:-0.90775969 3:-0.66777458 4:0.65401882 5:-0.025104142 6:0.67625499 
-10809.408805051566 1:0.93338848 2:-0.90775969 3:-0.66777458 4:-1.0897989 5:-1.3235942 6:-1.1075883 
-4323.6688066641973 1:-1.1956911 2:-0.90775969 3:0.63240957 4:-1.5257533 5:1.273386 6:-1.5535491 
-1767.0366622104284 1:0.93338848 2:0.1564369 3:0.63240957 4:0.65401882 5:-0.45793417 6:0.67625499 
-10809.408805051566 1:0.93338848 2:2.2848301 3:-0.23437986 4:-0.65384444 5:-0.025104142 6:-1.1075883 
-10809.408805051566 1:-0.1311513 2:0.1564369 3:0.63240957 4:-0.65384444 5:1.273386 6:-0.66162747 
-10809.408805051566 1:0.93338848 2:1.2206335 3:-1.534564 4:-0.65384444 5:-1.7564243 6:0.23029417 
-4763.8273948000005 1:0.93338848 2:1.2206335 3:0.63240957 4:-0.21789002 5:1.273386 6:-0.21566665 
-10809.408805051566 1:0.93338848 2:0.1564369 3:0.19901485 4:0.65401882 5:-0.025104142 6:1.5681766 
-8771.7910146999984 1:0.93338848 2:0.1564369 3:1.499199 4:-1.0897989 5:0.40772589 6:-1.1075883 
-10809.408805051566 1:-1.1956911 2:-0.90775969 3:-1.1011693 4:1.5259277 5:-1.3235942 6:0.67625499 
-10809.408805051566 1:0.93338848 2:0.1564369 3:0.19901485 4:-0.65384444 5:0.40772589 6:-0.21566665 
-10809.408805051566 1:-0.1311513 2:1.2206335 3:-0.23437986 4:-0.21789002 5:-0.025104142 6:-0.21566665 
-10809.408805051566 1:-0.1311513 2:-0.90775969 3:-1.1011693 4:-1.5257533 5:-1.7564243 6:-1.5535491 
-10809.408805051566 1:-0.1311513 2:-0.90775969 3:-0.66777458 4:0.2180644 5:-0.89076421 6:1.1222158 
-10809.408805051566 1:0.93338848 2:0.1564369 3:0.19901485 4:-1.5257533 5:0.84055592 6:-1.5535491 
-10809.408805051566 1:-0.1311513 2:0.1564369 3:-0.23437986 4:-1.5257533 5:-0.025104142 6:-1.5535491 
-7031.0639846225185 1:0.93338848 2:2.2848301 3:-1.534564 4:-1.5257533 5:-0.89076421 6:-1.5535491 
-10809.408805051566 1:0.93338848 2:0.1564369 3:0.19901485 4:-0.65384444 5:-0.025104142 6:-0.21566665 
-10809.408805051566 1:-1.1956911 2:0.1564369 3:1.499199 4:-0.65384444 5:0.40772589 6:-0.66162747 
-10809.408805051566 1:-2.2602309 2:-0.90775969 3:1.0658043 4:-0.65384444 5:0.84055592 6:0.23029417 
-10809.408805051566 1:0.93338848 2:1.2206335 3:0.19901485 4:1.5259277 5:-0.89076421 6:1.5681766 
-7089.6667826765224 1:-2.2602309 2:-0.90775969 3:-1.1011693 4:-1.0897989 5:-0.45793417 6:-1.1075883 
-10809.408805051566 1:-1.1956911 2:0.1564369 3:1.0658043 4:0.65401882 5:0.84055592 6:-0.21566665 
-10809.408805051566 1:0.93338848 2:1.2206335 3:0.63240957 4:1.5259277 5:0.40772589 6:0.67625499 
